digraph Tree {
node [shape=box] ;
0 [label="X[42] <= 7.5\nentropy = 3.322\nsamples = 1797\nvalue = [178, 182, 177, 183, 181, 182, 181, 179, 174, 180]"] ;
1 [label="X[26] <= 8.5\nentropy = 2.892\nsamples = 970\nvalue = [4, 119, 121, 171, 47, 170, 1, 119, 40, 178]"] ;
0 -> 1 [labeldistance=2.5, labelangle=45, headlabel="True"] ;
2 [label="entropy = 2.425\nsamples = 496\nvalue = [4, 57, 112, 163, 0, 9, 1, 88, 6, 56]"] ;
1 -> 2 ;
3 [label="entropy = 2.486\nsamples = 474\nvalue = [0, 62, 9, 8, 47, 161, 0, 31, 34, 122]"] ;
1 -> 3 ;
4 [label="X[36] <= 0.5\nentropy = 2.822\nsamples = 827\nvalue = [174, 63, 56, 12, 134, 12, 180, 60, 134, 2]"] ;
0 -> 4 [labeldistance=2.5, labelangle=-45, headlabel="False"] ;
5 [label="entropy = 0.773\nsamples = 192\nvalue = [170, 0, 3, 0, 6, 5, 5, 0, 3, 0]"] ;
4 -> 5 ;
6 [label="entropy = 2.651\nsamples = 635\nvalue = [4, 63, 53, 12, 128, 7, 175, 60, 131, 2]"] ;
4 -> 6 ;
}